digraph Tree {
node [shape=box, style="filled, rounded", color="black", fontname="helvetica"] ;
edge [fontname="helvetica"] ;
0 [label="ALCOHOL CONSUMING <= 1.5\ngini = 0.22\nsamples = 247\nvalue = [216, 31]\nclass = LUNG CANCER", fillcolor="#e99355"] ;
1 [label="YELLOW_FINGERS <= 1.5\ngini = 0.347\nsamples = 112\nvalue = [87, 25]\nclass = LUNG CANCER", fillcolor="#eca572"] ;
0 -> 1 [labeldistance=2.5, labelangle=45, headlabel="True"] ;
2 [label="CHRONIC DISEASE <= 1.5\ngini = 0.499\nsamples = 29\nvalue = [14, 15]\nclass = NOT LUNG CANCER", fillcolor="#f2f8fd"] ;
1 -> 2 ;
3 [label="AGE <= 65.0\ngini = 0.444\nsamples = 12\nvalue = [4, 8]\nclass = NOT LUNG CANCER", fillcolor="#9ccef2"] ;
2 -> 3 ;
4 [label="SHORTNESS OF BREATH <= 1.5\ngini = 0.278\nsamples = 6\nvalue = [1, 5]\nclass = NOT LUNG CANCER", fillcolor="#61b1ea"] ;
3 -> 4 ;
5 [label="ANXIETY <= 1.5\ngini = 0.5\nsamples = 2\nvalue = [1, 1]\nclass = LUNG CANCER", fillcolor="#ffffff"] ;
4 -> 5 ;
6 [label="gini = 0.0\nsamples = 1\nvalue = [1, 0]\nclass = LUNG CANCER", fillcolor="#e58139"] ;
5 -> 6 ;
7 [label="gini = 0.0\nsamples = 1\nvalue = [0, 1]\nclass = NOT LUNG CANCER", fillcolor="#399de5"] ;
5 -> 7 ;
8 [label="gini = 0.0\nsamples = 4\nvalue = [0, 4]\nclass = NOT LUNG CANCER", fillcolor="#399de5"] ;
4 -> 8 ;
9 [label="AGE <= 67.5\ngini = 0.5\nsamples = 6\nvalue = [3, 3]\nclass = LUNG CANCER", fillcolor="#ffffff"] ;
3 -> 9 ;
10 [label="gini = 0.0\nsamples = 2\nvalue = [2, 0]\nclass = LUNG CANCER", fillcolor="#e58139"] ;
9 -> 10 ;
11 [label="SHORTNESS OF BREATH <= 1.5\ngini = 0.375\nsamples = 4\nvalue = [1, 3]\nclass = NOT LUNG CANCER", fillcolor="#7bbeee"] ;
9 -> 11 ;
12 [label="gini = 0.0\nsamples = 2\nvalue = [0, 2]\nclass = NOT LUNG CANCER", fillcolor="#399de5"] ;
11 -> 12 ;
13 [label="GENDER <= 0.5\ngini = 0.5\nsamples = 2\nvalue = [1, 1]\nclass = LUNG CANCER", fillcolor="#ffffff"] ;
11 -> 13 ;
14 [label="gini = 0.0\nsamples = 1\nvalue = [0, 1]\nclass = NOT LUNG CANCER", fillcolor="#399de5"] ;
13 -> 14 ;
15 [label="gini = 0.0\nsamples = 1\nvalue = [1, 0]\nclass = LUNG CANCER", fillcolor="#e58139"] ;
13 -> 15 ;
16 [label="SMOKING <= 1.5\ngini = 0.484\nsamples = 17\nvalue = [10, 7]\nclass = LUNG CANCER", fillcolor="#f7d9c4"] ;
2 -> 16 ;
17 [label="AGE <= 63.5\ngini = 0.469\nsamples = 8\nvalue = [3, 5]\nclass = NOT LUNG CANCER", fillcolor="#b0d8f5"] ;
16 -> 17 ;
18 [label="gini = 0.0\nsamples = 4\nvalue = [0, 4]\nclass = NOT LUNG CANCER", fillcolor="#399de5"] ;
17 -> 18 ;
19 [label="AGE <= 79.0\ngini = 0.375\nsamples = 4\nvalue = [3, 1]\nclass = LUNG CANCER", fillcolor="#eeab7b"] ;
17 -> 19 ;
20 [label="gini = 0.0\nsamples = 3\nvalue = [3, 0]\nclass = LUNG CANCER", fillcolor="#e58139"] ;
19 -> 20 ;
21 [label="gini = 0.0\nsamples = 1\nvalue = [0, 1]\nclass = NOT LUNG CANCER", fillcolor="#399de5"] ;
19 -> 21 ;
22 [label="GENDER <= 0.5\ngini = 0.346\nsamples = 9\nvalue = [7, 2]\nclass = LUNG CANCER", fillcolor="#eca572"] ;
16 -> 22 ;
23 [label="gini = 0.0\nsamples = 3\nvalue = [3, 0]\nclass = LUNG CANCER", fillcolor="#e58139"] ;
22 -> 23 ;
24 [label="AGE <= 59.5\ngini = 0.444\nsamples = 6\nvalue = [4, 2]\nclass = LUNG CANCER", fillcolor="#f2c09c"] ;
22 -> 24 ;
25 [label="gini = 0.0\nsamples = 1\nvalue = [0, 1]\nclass = NOT LUNG CANCER", fillcolor="#399de5"] ;
24 -> 25 ;
26 [label="AGE <= 70.5\ngini = 0.32\nsamples = 5\nvalue = [4, 1]\nclass = LUNG CANCER", fillcolor="#eca06a"] ;
24 -> 26 ;
27 [label="gini = 0.0\nsamples = 4\nvalue = [4, 0]\nclass = LUNG CANCER", fillcolor="#e58139"] ;
26 -> 27 ;
28 [label="gini = 0.0\nsamples = 1\nvalue = [0, 1]\nclass = NOT LUNG CANCER", fillcolor="#399de5"] ;
26 -> 28 ;
29 [label="PEER_PRESSURE <= 1.5\ngini = 0.212\nsamples = 83\nvalue = [73, 10]\nclass = LUNG CANCER", fillcolor="#e99254"] ;
1 -> 29 ;
30 [label="CHRONIC DISEASE <= 1.5\ngini = 0.417\nsamples = 27\nvalue = [19, 8]\nclass = LUNG CANCER", fillcolor="#f0b68c"] ;
29 -> 30 ;
31 [label="CHEST PAIN <= 1.5\ngini = 0.497\nsamples = 13\nvalue = [6, 7]\nclass = NOT LUNG CANCER", fillcolor="#e3f1fb"] ;
30 -> 31 ;
32 [label="AGE <= 52.5\ngini = 0.278\nsamples = 6\nvalue = [1, 5]\nclass = NOT LUNG CANCER", fillcolor="#61b1ea"] ;
31 -> 32 ;
33 [label="gini = 0.0\nsamples = 1\nvalue = [1, 0]\nclass = LUNG CANCER", fillcolor="#e58139"] ;
32 -> 33 ;
34 [label="gini = 0.0\nsamples = 5\nvalue = [0, 5]\nclass = NOT LUNG CANCER", fillcolor="#399de5"] ;
32 -> 34 ;
35 [label="AGE <= 51.0\ngini = 0.408\nsamples = 7\nvalue = [5, 2]\nclass = LUNG CANCER", fillcolor="#efb388"] ;
31 -> 35 ;
36 [label="gini = 0.0\nsamples = 1\nvalue = [0, 1]\nclass = NOT LUNG CANCER", fillcolor="#399de5"] ;
35 -> 36 ;
37 [label="SWALLOWING DIFFICULTY <= 1.5\ngini = 0.278\nsamples = 6\nvalue = [5, 1]\nclass = LUNG CANCER", fillcolor="#ea9a61"] ;
35 -> 37 ;
38 [label="gini = 0.0\nsamples = 3\nvalue = [3, 0]\nclass = LUNG CANCER", fillcolor="#e58139"] ;
37 -> 38 ;
39 [label="WHEEZING <= 1.5\ngini = 0.444\nsamples = 3\nvalue = [2, 1]\nclass = LUNG CANCER", fillcolor="#f2c09c"] ;
37 -> 39 ;
40 [label="gini = 0.0\nsamples = 1\nvalue = [0, 1]\nclass = NOT LUNG CANCER", fillcolor="#399de5"] ;
39 -> 40 ;
41 [label="gini = 0.0\nsamples = 2\nvalue = [2, 0]\nclass = LUNG CANCER", fillcolor="#e58139"] ;
39 -> 41 ;
42 [label="AGE <= 51.5\ngini = 0.133\nsamples = 14\nvalue = [13, 1]\nclass = LUNG CANCER", fillcolor="#e78b48"] ;
30 -> 42 ;
43 [label="AGE <= 42.5\ngini = 0.5\nsamples = 2\nvalue = [1, 1]\nclass = LUNG CANCER", fillcolor="#ffffff"] ;
42 -> 43 ;
44 [label="gini = 0.0\nsamples = 1\nvalue = [1, 0]\nclass = LUNG CANCER", fillcolor="#e58139"] ;
43 -> 44 ;
45 [label="gini = 0.0\nsamples = 1\nvalue = [0, 1]\nclass = NOT LUNG CANCER", fillcolor="#399de5"] ;
43 -> 45 ;
46 [label="gini = 0.0\nsamples = 12\nvalue = [12, 0]\nclass = LUNG CANCER", fillcolor="#e58139"] ;
42 -> 46 ;
47 [label="ANXIETY <= 1.5\ngini = 0.069\nsamples = 56\nvalue = [54, 2]\nclass = LUNG CANCER", fillcolor="#e68640"] ;
29 -> 47 ;
48 [label="SHORTNESS OF BREATH <= 1.5\ngini = 0.298\nsamples = 11\nvalue = [9, 2]\nclass = LUNG CANCER", fillcolor="#eb9d65"] ;
47 -> 48 ;
49 [label="gini = 0.0\nsamples = 2\nvalue = [0, 2]\nclass = NOT LUNG CANCER", fillcolor="#399de5"] ;
48 -> 49 ;
50 [label="gini = 0.0\nsamples = 9\nvalue = [9, 0]\nclass = LUNG CANCER", fillcolor="#e58139"] ;
48 -> 50 ;
51 [label="gini = 0.0\nsamples = 45\nvalue = [45, 0]\nclass = LUNG CANCER", fillcolor="#e58139"] ;
47 -> 51 ;
52 [label="SHORTNESS OF BREATH <= 1.5\ngini = 0.085\nsamples = 135\nvalue = [129, 6]\nclass = LUNG CANCER", fillcolor="#e68742"] ;
0 -> 52 [labeldistance=2.5, labelangle=-45, headlabel="False"] ;
53 [label="SWALLOWING DIFFICULTY <= 1.5\ngini = 0.183\nsamples = 59\nvalue = [53, 6]\nclass = LUNG CANCER", fillcolor="#e88f4f"] ;
52 -> 53 ;
54 [label="GENDER <= 0.5\ngini = 0.351\nsamples = 22\nvalue = [17, 5]\nclass = LUNG CANCER", fillcolor="#eda673"] ;
53 -> 54 ;
55 [label="COUGHING <= 1.5\ngini = 0.473\nsamples = 13\nvalue = [8, 5]\nclass = LUNG CANCER", fillcolor="#f5d0b5"] ;
54 -> 55 ;
56 [label="gini = 0.0\nsamples = 3\nvalue = [0, 3]\nclass = NOT LUNG CANCER", fillcolor="#399de5"] ;
55 -> 56 ;
57 [label="AGE <= 62.0\ngini = 0.32\nsamples = 10\nvalue = [8, 2]\nclass = LUNG CANCER", fillcolor="#eca06a"] ;
55 -> 57 ;
58 [label="gini = 0.0\nsamples = 5\nvalue = [5, 0]\nclass = LUNG CANCER", fillcolor="#e58139"] ;
57 -> 58 ;
59 [label="AGE <= 69.5\ngini = 0.48\nsamples = 5\nvalue = [3, 2]\nclass = LUNG CANCER", fillcolor="#f6d5bd"] ;
57 -> 59 ;
60 [label="AGE <= 66.5\ngini = 0.444\nsamples = 3\nvalue = [1, 2]\nclass = NOT LUNG CANCER", fillcolor="#9ccef2"] ;
59 -> 60 ;
61 [label="gini = 0.5\nsamples = 2\nvalue = [1, 1]\nclass = LUNG CANCER", fillcolor="#ffffff"] ;
60 -> 61 ;
62 [label="gini = 0.0\nsamples = 1\nvalue = [0, 1]\nclass = NOT LUNG CANCER", fillcolor="#399de5"] ;
60 -> 62 ;
63 [label="gini = 0.0\nsamples = 2\nvalue = [2, 0]\nclass = LUNG CANCER", fillcolor="#e58139"] ;
59 -> 63 ;
64 [label="gini = 0.0\nsamples = 9\nvalue = [9, 0]\nclass = LUNG CANCER", fillcolor="#e58139"] ;
54 -> 64 ;
65 [label="PEER_PRESSURE <= 1.5\ngini = 0.053\nsamples = 37\nvalue = [36, 1]\nclass = LUNG CANCER", fillcolor="#e6843e"] ;
53 -> 65 ;
66 [label="CHRONIC DISEASE <= 1.5\ngini = 0.198\nsamples = 9\nvalue = [8, 1]\nclass = LUNG CANCER", fillcolor="#e89152"] ;
65 -> 66 ;
67 [label="AGE <= 61.5\ngini = 0.5\nsamples = 2\nvalue = [1, 1]\nclass = LUNG CANCER", fillcolor="#ffffff"] ;
66 -> 67 ;
68 [label="gini = 0.0\nsamples = 1\nvalue = [1, 0]\nclass = LUNG CANCER", fillcolor="#e58139"] ;
67 -> 68 ;
69 [label="gini = 0.0\nsamples = 1\nvalue = [0, 1]\nclass = NOT LUNG CANCER", fillcolor="#399de5"] ;
67 -> 69 ;
70 [label="gini = 0.0\nsamples = 7\nvalue = [7, 0]\nclass = LUNG CANCER", fillcolor="#e58139"] ;
66 -> 70 ;
71 [label="gini = 0.0\nsamples = 28\nvalue = [28, 0]\nclass = LUNG CANCER", fillcolor="#e58139"] ;
65 -> 71 ;
72 [label="gini = 0.0\nsamples = 76\nvalue = [76, 0]\nclass = LUNG CANCER", fillcolor="#e58139"] ;
52 -> 72 ;
}